digraph Tree {
node [shape=box] ;
0 [label="Years At Company <= 1.5\ngini = 0.27\nsamples = 4410\nvalue = [3699, 711]"] ;
1 [label="Age <= 33.5\ngini = 0.454\nsamples = 645\nvalue = [420, 225]"] ;
0 -> 1 [labeldistance=2.5, labelangle=45, headlabel="True"] ;
2 [label="Monthly Income <= 112610.0\ngini = 0.497\nsamples = 306\nvalue = [141, 165]"] ;
1 -> 2 ;
3 [label="Age <= 22.5\ngini = 0.486\nsamples = 267\nvalue = [111, 156]"] ;
2 -> 3 ;
4 [label="Monthly Income <= 23140.0\ngini = 0.33\nsamples = 72\nvalue = [15, 57]"] ;
3 -> 4 ;
5 [label="gini = 0.0\nsamples = 3\nvalue = [3, 0]"] ;
4 -> 5 ;
6 [label="Age <= 18.5\ngini = 0.287\nsamples = 69\nvalue = [12, 57]"] ;
4 -> 6 ;
7 [label="Distance From Home <= 4.0\ngini = 0.49\nsamples = 21\nvalue = [9, 12]"] ;
6 -> 7 ;
8 [label="Distance From Home <= 1.5\ngini = 0.32\nsamples = 15\nvalue = [3, 12]"] ;
7 -> 8 ;
9 [label="gini = 0.5\nsamples = 6\nvalue = [3, 3]"] ;
8 -> 9 ;
10 [label="gini = 0.0\nsamples = 9\nvalue = [0, 9]"] ;
8 -> 10 ;
11 [label="gini = 0.0\nsamples = 6\nvalue = [6, 0]"] ;
7 -> 11 ;
12 [label="Monthly Income <= 106255.0\ngini = 0.117\nsamples = 48\nvalue = [3, 45]"] ;
6 -> 12 ;
13 [label="gini = 0.0\nsamples = 45\nvalue = [0, 45]"] ;
12 -> 13 ;
14 [label="gini = 0.0\nsamples = 3\nvalue = [3, 0]"] ;
12 -> 14 ;
15 [label="Monthly Income <= 72530.0\ngini = 0.5\nsamples = 195\nvalue = [96, 99]"] ;
3 -> 15 ;
16 [label="Distance From Home <= 2.5\ngini = 0.499\nsamples = 171\nvalue = [90, 81]"] ;
15 -> 16 ;
17 [label="Age <= 27.5\ngini = 0.444\nsamples = 45\nvalue = [15, 30]"] ;
16 -> 17 ;
18 [label="Age <= 26.5\ngini = 0.5\nsamples = 24\nvalue = [12, 12]"] ;
17 -> 18 ;
19 [label="gini = 0.32\nsamples = 15\nvalue = [3, 12]"] ;
18 -> 19 ;
20 [label="gini = 0.0\nsamples = 9\nvalue = [9, 0]"] ;
18 -> 20 ;
21 [label="Monthly Income <= 25455.0\ngini = 0.245\nsamples = 21\nvalue = [3, 18]"] ;
17 -> 21 ;
22 [label="gini = 0.0\nsamples = 9\nvalue = [0, 9]"] ;
21 -> 22 ;
23 [label="gini = 0.375\nsamples = 12\nvalue = [3, 9]"] ;
21 -> 23 ;
24 [label="Monthly Income <= 31000.0\ngini = 0.482\nsamples = 126\nvalue = [75, 51]"] ;
16 -> 24 ;
25 [label="Monthly Income <= 27080.0\ngini = 0.49\nsamples = 42\nvalue = [18, 24]"] ;
24 -> 25 ;
26 [label="gini = 0.444\nsamples = 27\nvalue = [18, 9]"] ;
25 -> 26 ;
27 [label="gini = 0.0\nsamples = 15\nvalue = [0, 15]"] ;
25 -> 27 ;
28 [label="Distance From Home <= 8.5\ngini = 0.436\nsamples = 84\nvalue = [57, 27]"] ;
24 -> 28 ;
29 [label="gini = 0.0\nsamples = 27\nvalue = [27, 0]"] ;
28 -> 29 ;
30 [label="gini = 0.499\nsamples = 57\nvalue = [30, 27]"] ;
28 -> 30 ;
31 [label="Distance From Home <= 1.5\ngini = 0.375\nsamples = 24\nvalue = [6, 18]"] ;
15 -> 31 ;
32 [label="Monthly Income <= 108025.0\ngini = 0.444\nsamples = 9\nvalue = [6, 3]"] ;
31 -> 32 ;
33 [label="gini = 0.0\nsamples = 6\nvalue = [6, 0]"] ;
32 -> 33 ;
34 [label="gini = 0.0\nsamples = 3\nvalue = [0, 3]"] ;
32 -> 34 ;
35 [label="gini = 0.0\nsamples = 15\nvalue = [0, 15]"] ;
31 -> 35 ;
36 [label="Distance From Home <= 5.0\ngini = 0.355\nsamples = 39\nvalue = [30, 9]"] ;
2 -> 36 ;
37 [label="gini = 0.0\nsamples = 21\nvalue = [21, 0]"] ;
36 -> 37 ;
38 [label="Monthly Income <= 161855.0\ngini = 0.5\nsamples = 18\nvalue = [9, 9]"] ;
36 -> 38 ;
39 [label="gini = 0.0\nsamples = 6\nvalue = [0, 6]"] ;
38 -> 39 ;
40 [label="Age <= 30.5\ngini = 0.375\nsamples = 12\nvalue = [9, 3]"] ;
38 -> 40 ;
41 [label="gini = 0.0\nsamples = 9\nvalue = [9, 0]"] ;
40 -> 41 ;
42 [label="gini = 0.0\nsamples = 3\nvalue = [0, 3]"] ;
40 -> 42 ;
43 [label="Distance From Home <= 2.5\ngini = 0.291\nsamples = 339\nvalue = [279, 60]"] ;
1 -> 43 ;
44 [label="Monthly Income <= 24545.0\ngini = 0.414\nsamples = 123\nvalue = [87, 36]"] ;
43 -> 44 ;
45 [label="gini = 0.0\nsamples = 21\nvalue = [21, 0]"] ;
44 -> 45 ;
46 [label="Age <= 39.5\ngini = 0.457\nsamples = 102\nvalue = [66, 36]"] ;
44 -> 46 ;
47 [label="Age <= 36.5\ngini = 0.497\nsamples = 39\nvalue = [18, 21]"] ;
46 -> 47 ;
48 [label="Monthly Income <= 26140.0\ngini = 0.408\nsamples = 21\nvalue = [15, 6]"] ;
47 -> 48 ;
49 [label="gini = 0.0\nsamples = 3\nvalue = [0, 3]"] ;
48 -> 49 ;
50 [label="Monthly Income <= 86465.0\ngini = 0.278\nsamples = 18\nvalue = [15, 3]"] ;
48 -> 50 ;
51 [label="gini = 0.0\nsamples = 9\nvalue = [9, 0]"] ;
50 -> 51 ;
52 [label="gini = 0.444\nsamples = 9\nvalue = [6, 3]"] ;
50 -> 52 ;
53 [label="Monthly Income <= 76330.0\ngini = 0.278\nsamples = 18\nvalue = [3, 15]"] ;
47 -> 53 ;
54 [label="gini = 0.0\nsamples = 15\nvalue = [0, 15]"] ;
53 -> 54 ;
55 [label="gini = 0.0\nsamples = 3\nvalue = [3, 0]"] ;
53 -> 55 ;
56 [label="Age <= 50.5\ngini = 0.363\nsamples = 63\nvalue = [48, 15]"] ;
46 -> 56 ;
57 [label="Age <= 49.0\ngini = 0.415\nsamples = 51\nvalue = [36, 15]"] ;
56 -> 57 ;
58 [label="Distance From Home <= 1.5\ngini = 0.375\nsamples = 48\nvalue = [36, 12]"] ;
57 -> 58 ;
59 [label="gini = 0.278\nsamples = 36\nvalue = [30, 6]"] ;
58 -> 59 ;
60 [label="gini = 0.5\nsamples = 12\nvalue = [6, 6]"] ;
58 -> 60 ;
61 [label="gini = 0.0\nsamples = 3\nvalue = [0, 3]"] ;
57 -> 61 ;
62 [label="gini = 0.0\nsamples = 12\nvalue = [12, 0]"] ;
56 -> 62 ;
63 [label="Age <= 57.0\ngini = 0.198\nsamples = 216\nvalue = [192, 24]"] ;
43 -> 63 ;
64 [label="Monthly Income <= 106980.0\ngini = 0.165\nsamples = 198\nvalue = [180, 18]"] ;
63 -> 64 ;
65 [label="Monthly Income <= 34145.0\ngini = 0.103\nsamples = 165\nvalue = [156, 9]"] ;
64 -> 65 ;
66 [label="gini = 0.0\nsamples = 57\nvalue = [57, 0]"] ;
65 -> 66 ;
67 [label="Monthly Income <= 35610.0\ngini = 0.153\nsamples = 108\nvalue = [99, 9]"] ;
65 -> 67 ;
68 [label="gini = 0.0\nsamples = 3\nvalue = [0, 3]"] ;
67 -> 68 ;
69 [label="Age <= 37.5\ngini = 0.108\nsamples = 105\nvalue = [99, 6]"] ;
67 -> 69 ;
70 [label="gini = 0.245\nsamples = 42\nvalue = [36, 6]"] ;
69 -> 70 ;
71 [label="gini = 0.0\nsamples = 63\nvalue = [63, 0]"] ;
69 -> 71 ;
72 [label="Monthly Income <= 119320.0\ngini = 0.397\nsamples = 33\nvalue = [24, 9]"] ;
64 -> 72 ;
73 [label="gini = 0.0\nsamples = 3\nvalue = [0, 3]"] ;
72 -> 73 ;
74 [label="Distance From Home <= 6.5\ngini = 0.32\nsamples = 30\nvalue = [24, 6]"] ;
72 -> 74 ;
75 [label="gini = 0.0\nsamples = 12\nvalue = [12, 0]"] ;
74 -> 75 ;
76 [label="Distance From Home <= 8.5\ngini = 0.444\nsamples = 18\nvalue = [12, 6]"] ;
74 -> 76 ;
77 [label="gini = 0.0\nsamples = 3\nvalue = [0, 3]"] ;
76 -> 77 ;
78 [label="gini = 0.32\nsamples = 15\nvalue = [12, 3]"] ;
76 -> 78 ;
79 [label="Distance From Home <= 7.0\ngini = 0.444\nsamples = 18\nvalue = [12, 6]"] ;
63 -> 79 ;
80 [label="gini = 0.0\nsamples = 9\nvalue = [9, 0]"] ;
79 -> 80 ;
81 [label="Distance From Home <= 13.0\ngini = 0.444\nsamples = 9\nvalue = [3, 6]"] ;
79 -> 81 ;
82 [label="gini = 0.0\nsamples = 6\nvalue = [0, 6]"] ;
81 -> 82 ;
83 [label="gini = 0.0\nsamples = 3\nvalue = [3, 0]"] ;
81 -> 83 ;
84 [label="Age <= 33.5\ngini = 0.225\nsamples = 3765\nvalue = [3279, 486]"] ;
0 -> 84 [labeldistance=2.5, labelangle=-45, headlabel="False"] ;
85 [label="Years At Company <= 3.5\ngini = 0.298\nsamples = 1416\nvalue = [1158, 258]"] ;
84 -> 85 ;
86 [label="Distance From Home <= 7.5\ngini = 0.397\nsamples = 384\nvalue = [279, 105]"] ;
85 -> 86 ;
87 [label="Monthly Income <= 73705.0\ngini = 0.292\nsamples = 186\nvalue = [153, 33]"] ;
86 -> 87 ;
88 [label="Monthly Income <= 59150.0\ngini = 0.353\nsamples = 144\nvalue = [111, 33]"] ;
87 -> 88 ;
89 [label="Years At Company <= 2.5\ngini = 0.273\nsamples = 129\nvalue = [108, 21]"] ;
88 -> 89 ;
90 [label="Monthly Income <= 26350.0\ngini = 0.375\nsamples = 60\nvalue = [45, 15]"] ;
89 -> 90 ;
91 [label="gini = 0.0\nsamples = 15\nvalue = [15, 0]"] ;
90 -> 91 ;
92 [label="gini = 0.444\nsamples = 45\nvalue = [30, 15]"] ;
90 -> 92 ;
93 [label="Distance From Home <= 2.5\ngini = 0.159\nsamples = 69\nvalue = [63, 6]"] ;
89 -> 93 ;
94 [label="gini = 0.278\nsamples = 36\nvalue = [30, 6]"] ;
93 -> 94 ;
95 [label="gini = 0.0\nsamples = 33\nvalue = [33, 0]"] ;
93 -> 95 ;
96 [label="Distance From Home <= 2.0\ngini = 0.32\nsamples = 15\nvalue = [3, 12]"] ;
88 -> 96 ;
97 [label="gini = 0.0\nsamples = 3\nvalue = [3, 0]"] ;
96 -> 97 ;
98 [label="gini = 0.0\nsamples = 12\nvalue = [0, 12]"] ;
96 -> 98 ;
99 [label="gini = 0.0\nsamples = 42\nvalue = [42, 0]"] ;
87 -> 99 ;
100 [label="Monthly Income <= 115880.0\ngini = 0.463\nsamples = 198\nvalue = [126, 72]"] ;
86 -> 100 ;
101 [label="Monthly Income <= 34745.0\ngini = 0.431\nsamples = 162\nvalue = [111, 51]"] ;
100 -> 101 ;
102 [label="Years At Company <= 2.5\ngini = 0.491\nsamples = 69\nvalue = [39, 30]"] ;
101 -> 102 ;
103 [label="Distance From Home <= 19.5\ngini = 0.498\nsamples = 45\nvalue = [21, 24]"] ;
102 -> 103 ;
104 [label="gini = 0.397\nsamples = 33\nvalue = [9, 24]"] ;
103 -> 104 ;
105 [label="gini = 0.0\nsamples = 12\nvalue = [12, 0]"] ;
103 -> 105 ;
106 [label="Distance From Home <= 20.5\ngini = 0.375\nsamples = 24\nvalue = [18, 6]"] ;
102 -> 106 ;
107 [label="gini = 0.0\nsamples = 18\nvalue = [18, 0]"] ;
106 -> 107 ;
108 [label="gini = 0.0\nsamples = 6\nvalue = [0, 6]"] ;
106 -> 108 ;
109 [label="Monthly Income <= 49940.0\ngini = 0.35\nsamples = 93\nvalue = [72, 21]"] ;
101 -> 109 ;
110 [label="Distance From Home <= 15.5\ngini = 0.153\nsamples = 36\nvalue = [33, 3]"] ;
109 -> 110 ;
111 [label="gini = 0.32\nsamples = 15\nvalue = [12, 3]"] ;
110 -> 111 ;
112 [label="gini = 0.0\nsamples = 21\nvalue = [21, 0]"] ;
110 -> 112 ;
113 [label="Monthly Income <= 53585.0\ngini = 0.432\nsamples = 57\nvalue = [39, 18]"] ;
109 -> 113 ;
114 [label="gini = 0.0\nsamples = 6\nvalue = [0, 6]"] ;
113 -> 114 ;
115 [label="gini = 0.36\nsamples = 51\nvalue = [39, 12]"] ;
113 -> 115 ;
116 [label="Distance From Home <= 9.5\ngini = 0.486\nsamples = 36\nvalue = [15, 21]"] ;
100 -> 116 ;
117 [label="gini = 0.0\nsamples = 9\nvalue = [0, 9]"] ;
116 -> 117 ;
118 [label="Monthly Income <= 135580.0\ngini = 0.494\nsamples = 27\nvalue = [15, 12]"] ;
116 -> 118 ;
119 [label="gini = 0.0\nsamples = 6\nvalue = [0, 6]"] ;
118 -> 119 ;
120 [label="Monthly Income <= 196390.0\ngini = 0.408\nsamples = 21\nvalue = [15, 6]"] ;
118 -> 120 ;
121 [label="gini = 0.278\nsamples = 18\nvalue = [15, 3]"] ;
120 -> 121 ;
122 [label="gini = 0.0\nsamples = 3\nvalue = [0, 3]"] ;
120 -> 122 ;
123 [label="Distance From Home <= 26.5\ngini = 0.253\nsamples = 1032\nvalue = [879, 153]"] ;
85 -> 123 ;
124 [label="Distance From Home <= 15.5\ngini = 0.237\nsamples = 981\nvalue = [846, 135]"] ;
123 -> 124 ;
125 [label="Distance From Home <= 9.5\ngini = 0.261\nsamples = 816\nvalue = [690, 126]"] ;
124 -> 125 ;
126 [label="Distance From Home <= 7.5\ngini = 0.239\nsamples = 648\nvalue = [558, 90]"] ;
125 -> 126 ;
127 [label="Years At Company <= 9.5\ngini = 0.27\nsamples = 522\nvalue = [438, 84]"] ;
126 -> 127 ;
128 [label="gini = 0.243\nsamples = 423\nvalue = [363, 60]"] ;
127 -> 128 ;
129 [label="gini = 0.367\nsamples = 99\nvalue = [75, 24]"] ;
127 -> 129 ;
130 [label="Monthly Income <= 152595.0\ngini = 0.091\nsamples = 126\nvalue = [120, 6]"] ;
126 -> 130 ;
131 [label="gini = 0.0\nsamples = 99\nvalue = [99, 0]"] ;
130 -> 131 ;
132 [label="gini = 0.346\nsamples = 27\nvalue = [21, 6]"] ;
130 -> 132 ;
133 [label="Monthly Income <= 22370.0\ngini = 0.337\nsamples = 168\nvalue = [132, 36]"] ;
125 -> 133 ;
134 [label="Age <= 30.5\ngini = 0.444\nsamples = 9\nvalue = [3, 6]"] ;
133 -> 134 ;
135 [label="gini = 0.0\nsamples = 6\nvalue = [0, 6]"] ;
134 -> 135 ;
136 [label="gini = 0.0\nsamples = 3\nvalue = [3, 0]"] ;
134 -> 136 ;
137 [label="Age <= 26.5\ngini = 0.306\nsamples = 159\nvalue = [129, 30]"] ;
133 -> 137 ;
138 [label="gini = 0.469\nsamples = 24\nvalue = [15, 9]"] ;
137 -> 138 ;
139 [label="gini = 0.263\nsamples = 135\nvalue = [114, 21]"] ;
137 -> 139 ;
140 [label="Monthly Income <= 20570.0\ngini = 0.103\nsamples = 165\nvalue = [156, 9]"] ;
124 -> 140 ;
141 [label="Monthly Income <= 15525.0\ngini = 0.5\nsamples = 6\nvalue = [3, 3]"] ;
140 -> 141 ;
142 [label="gini = 0.0\nsamples = 3\nvalue = [3, 0]"] ;
141 -> 142 ;
143 [label="gini = 0.0\nsamples = 3\nvalue = [0, 3]"] ;
141 -> 143 ;
144 [label="Age <= 25.5\ngini = 0.073\nsamples = 159\nvalue = [153, 6]"] ;
140 -> 144 ;
145 [label="Years At Company <= 5.5\ngini = 0.32\nsamples = 15\nvalue = [12, 3]"] ;
144 -> 145 ;
146 [label="gini = 0.0\nsamples = 12\nvalue = [12, 0]"] ;
145 -> 146 ;
147 [label="gini = 0.0\nsamples = 3\nvalue = [0, 3]"] ;
145 -> 147 ;
148 [label="Years At Company <= 9.5\ngini = 0.041\nsamples = 144\nvalue = [141, 3]"] ;
144 -> 148 ;
149 [label="gini = 0.0\nsamples = 105\nvalue = [105, 0]"] ;
148 -> 149 ;
150 [label="gini = 0.142\nsamples = 39\nvalue = [36, 3]"] ;
148 -> 150 ;
151 [label="Years At Company <= 7.5\ngini = 0.457\nsamples = 51\nvalue = [33, 18]"] ;
123 -> 151 ;
152 [label="Monthly Income <= 46375.0\ngini = 0.48\nsamples = 30\nvalue = [12, 18]"] ;
151 -> 152 ;
153 [label="gini = 0.0\nsamples = 15\nvalue = [0, 15]"] ;
152 -> 153 ;
154 [label="Distance From Home <= 27.5\ngini = 0.32\nsamples = 15\nvalue = [12, 3]"] ;
152 -> 154 ;
155 [label="gini = 0.0\nsamples = 3\nvalue = [0, 3]"] ;
154 -> 155 ;
156 [label="gini = 0.0\nsamples = 12\nvalue = [12, 0]"] ;
154 -> 156 ;
157 [label="gini = 0.0\nsamples = 21\nvalue = [21, 0]"] ;
151 -> 157 ;
158 [label="Monthly Income <= 10300.0\ngini = 0.175\nsamples = 2349\nvalue = [2121, 228]"] ;
84 -> 158 ;
159 [label="gini = 0.0\nsamples = 3\nvalue = [0, 3]"] ;
158 -> 159 ;
160 [label="Years At Company <= 38.5\ngini = 0.173\nsamples = 2346\nvalue = [2121, 225]"] ;
158 -> 160 ;
161 [label="Distance From Home <= 3.5\ngini = 0.172\nsamples = 2343\nvalue = [2121, 222]"] ;
160 -> 161 ;
162 [label="Age <= 36.5\ngini = 0.11\nsamples = 771\nvalue = [726, 45]"] ;
161 -> 162 ;
163 [label="Years At Company <= 16.5\ngini = 0.183\nsamples = 177\nvalue = [159, 18]"] ;
162 -> 163 ;
164 [label="Years At Company <= 7.5\ngini = 0.16\nsamples = 171\nvalue = [156, 15]"] ;
163 -> 164 ;
165 [label="gini = 0.231\nsamples = 90\nvalue = [78, 12]"] ;
164 -> 165 ;
166 [label="gini = 0.071\nsamples = 81\nvalue = [78, 3]"] ;
164 -> 166 ;
167 [label="Monthly Income <= 70440.0\ngini = 0.5\nsamples = 6\nvalue = [3, 3]"] ;
163 -> 167 ;
168 [label="gini = 0.0\nsamples = 3\nvalue = [0, 3]"] ;
167 -> 168 ;
169 [label="gini = 0.0\nsamples = 3\nvalue = [3, 0]"] ;
167 -> 169 ;
170 [label="Monthly Income <= 195720.0\ngini = 0.087\nsamples = 594\nvalue = [567, 27]"] ;
162 -> 170 ;
171 [label="Monthly Income <= 25795.0\ngini = 0.079\nsamples = 582\nvalue = [558, 24]"] ;
170 -> 171 ;
172 [label="gini = 0.185\nsamples = 87\nvalue = [78, 9]"] ;
171 -> 172 ;
173 [label="gini = 0.059\nsamples = 495\nvalue = [480, 15]"] ;
171 -> 173 ;
174 [label="Years At Company <= 22.5\ngini = 0.375\nsamples = 12\nvalue = [9, 3]"] ;
170 -> 174 ;
175 [label="gini = 0.0\nsamples = 9\nvalue = [9, 0]"] ;
174 -> 175 ;
176 [label="gini = 0.0\nsamples = 3\nvalue = [0, 3]"] ;
174 -> 176 ;
177 [label="Distance From Home <= 24.5\ngini = 0.2\nsamples = 1572\nvalue = [1395, 177]"] ;
161 -> 177 ;
178 [label="Monthly Income <= 63480.0\ngini = 0.221\nsamples = 1374\nvalue = [1200, 174]"] ;
177 -> 178 ;
179 [label="Monthly Income <= 62460.0\ngini = 0.258\nsamples = 906\nvalue = [768, 138]"] ;
178 -> 179 ;
180 [label="gini = 0.246\nsamples = 879\nvalue = [753, 126]"] ;
179 -> 180 ;
181 [label="gini = 0.494\nsamples = 27\nvalue = [15, 12]"] ;
179 -> 181 ;
182 [label="Age <= 48.5\ngini = 0.142\nsamples = 468\nvalue = [432, 36]"] ;
178 -> 182 ;
183 [label="gini = 0.103\nsamples = 384\nvalue = [363, 21]"] ;
182 -> 183 ;
184 [label="gini = 0.293\nsamples = 84\nvalue = [69, 15]"] ;
182 -> 184 ;
185 [label="Age <= 34.5\ngini = 0.03\nsamples = 198\nvalue = [195, 3]"] ;
177 -> 185 ;
186 [label="Monthly Income <= 39430.0\ngini = 0.18\nsamples = 30\nvalue = [27, 3]"] ;
185 -> 186 ;
187 [label="gini = 0.5\nsamples = 6\nvalue = [3, 3]"] ;
186 -> 187 ;
188 [label="gini = 0.0\nsamples = 24\nvalue = [24, 0]"] ;
186 -> 188 ;
189 [label="gini = 0.0\nsamples = 168\nvalue = [168, 0]"] ;
185 -> 189 ;
190 [label="gini = 0.0\nsamples = 3\nvalue = [0, 3]"] ;
160 -> 190 ;
}